{
  "input_nodes": 5,
  "hidden_nodes": 8,
  "output_nodes": 3,
  "weights_ih": {
    "rows": 8,
    "cols": 5,
    "data": [
      [
        2.9052255975129113,
        1.5506989813462537,
        -4.573189073419472,
        -2.431898195650283,
        -0.5541862850577908
      ],
      [
        0.9346998040652721,
        -1.707729389275275,
        -0.8697518725484645,
        -1.099550644592751,
        3.563123764180627
      ],
      [
        -2.2841453225159802,
        -4.373076824003965,
        0.9077253254246977,
        -0.43770961787783064,
        3.606100604419794
      ],
      [
        3.0563150094806413,
        2.622009251886147,
        -0.5690444888000985,
        0.21650376581573624,
        -2.574757147631602
      ],
      [
        -0.20391881212432011,
        0.5443628214596946,
        0.7853425902291086,
        2.194790514821837,
        -0.5360132506940327
      ],
      [
        -0.9576005649573045,
        -2.1560619945684247,
        1.7027615245042031,
        3.0710571233300366,
        -1.9441443821544113
      ],
      [
        -0.7915967835403056,
        0.9885336691347093,
        -3.245510649306545,
        1.8496426946550488,
        1.1300361820411156
      ],
      [
        2.4786938526301516,
        0.9614254078423117,
        -4.0371209261591705,
        -1.356639437438877,
        -0.4842643786092448
      ]
    ]
  },
  "weights_ho": {
    "rows": 3,
    "cols": 8,
    "data": [
      [
        -1.2008872915831803,
        0.2845966804673833,
        -3.9722561522926227,
        0.12309993170818126,
        -0.26325500854282663,
        0.3965789648218297,
        -0.37016079247115735,
        -0.014929063456662894
      ],
      [
        3.8336044833096765,
        2.658282430176955,
        1.5629399906405224,
        -3.6554300581116714,
        -0.2562399490282813,
        1.2030808743398358,
        1.7703097010467566,
        -1.7148294125203698
      ],
      [
        0.6542858924609902,
        -0.9281031106297593,
        -4.3268944293025084,
        3.110914206115027,
        -0.05651366948510555,
        0.06394775190633753,
        -1.1893935286923822,
        0.38006240375315853
      ]
    ]
  },
  "bias_h": {
    "rows": 8,
    "cols": 1,
    "data": [
      [
        -1.9057006097652114
      ],
      [
        -1.5638752620261531
      ],
      [
        -1.0613307637840168
      ],
      [
        1.2773116704571044
      ],
      [
        2.02810165850901
      ],
      [
        2.007123457543024
      ],
      [
        -0.1542077079719718
      ],
      [
        -0.6536362939249865
      ]
    ]
  },
  "bias_o": {
    "rows": 3,
    "cols": 1,
    "data": [
      [
        -0.9600521942805181
      ],
      [
        1.1775231834865805
      ],
      [
        0.14256232822444334
      ]
    ]
  },
  "learning_rate": 0.1,
  "activation_function": {}
}
